<?xml version="1.0"?>
<opencv_storage>
<opencv_ml_svm>
  <format>3</format>
  <svmType>C_SVC</svmType>
  <kernel>
    <type>RBF</type>
    <gamma>0.00015000000000000001</gamma></kernel>
  <C>0.10000000000000001</C>
  <term_criteria><epsilon>1.1920928955078125e-07</epsilon>
    <iterations>1000</iterations></term_criteria>
  <var_count>2</var_count>
  <class_count>2</class_count>
  <class_labels type_id="opencv-matrix">
    <rows>2</rows>
    <cols>1</cols>
    <dt>i</dt>
    <data>
      0 1</data></class_labels>
  <sv_total>45</sv_total>
  <support_vectors>
    <_>
      25. 107.</_>
    <_>
      129. 136.</_>
    <_>
      91. 7.</_>
    <_>
      16. 107.</_>
    <_>
      89. 114.</_>
    <_>
      28. 91.</_>
    <_>
      78. 155.</_>
    <_>
      24. 151.</_>
    <_>
      98. 34.</_>
    <_>
      88. 108.</_>
    <_>
      156. 152.</_>
    <_>
      82. 97.</_>
    <_>
      5. 104.</_>
    <_>
      63. 1.</_>
    <_>
      138. 61.</_>
    <_>
      55. 30.</_>
    <_>
      100. 40.</_>
    <_>
      117. 35.</_>
    <_>
      114. 35.</_>
    <_>
      47. 9.</_>
    <_>
      47. 18.</_>
    <_>
      86. 16.</_>
    <_>
      72. 107.</_>
    <_>
      242. 175.</_>
    <_>
      127. 239.</_>
    <_>
      251. 130.</_>
    <_>
      129. 195.</_>
    <_>
      113. 155.</_>
    <_>
      136. 137.</_>
    <_>
      227. 201.</_>
    <_>
      240. 104.</_>
    <_>
      194. 103.</_>
    <_>
      143. 191.</_>
    <_>
      239. 198.</_>
    <_>
      232. 230.</_>
    <_>
      177. 211.</_>
    <_>
      223. 194.</_>
    <_>
      216. 234.</_>
    <_>
      178. 231.</_>
    <_>
      119. 122.</_>
    <_>
      252. 224.</_>
    <_>
      159. 208.</_>
    <_>
      130. 165.</_>
    <_>
      126. 182.</_>
    <_>
      192. 227.</_></support_vectors>
  <decision_functions>
    <_>
      <sv_count>45</sv_count>
      <rho>-0.034266344248800713</rho>
      <alpha>
        0.10000000000000001 0.10000000000000001 0.10000000000000001
        0.10000000000000001 0.10000000000000001 0.10000000000000001
        0.10000000000000001 0.10000000000000001 0.10000000000000001
        0.015659143839800851 0.10000000000000001 0.10000000000000001
        0.10000000000000001 0.10000000000000001 0.10000000000000001
        0.10000000000000001 0.10000000000000001 0.10000000000000001
        0.10000000000000001 0.10000000000000001 0.0046442021224104794
        0.10000000000000001 0.10000000000000001 -0.10000000000000001
        -0.020303345962211332 -0.10000000000000001 -0.10000000000000001
        -0.10000000000000001 -0.10000000000000001 -0.10000000000000001
        -0.10000000000000001 -0.10000000000000001 -0.10000000000000001
        -0.10000000000000001 -0.10000000000000001 -0.10000000000000001
        -0.10000000000000001 -0.10000000000000001 -0.10000000000000001
        -0.10000000000000001 -0.10000000000000001 -0.10000000000000001
        -0.10000000000000001 -0.10000000000000001 -0.10000000000000001</alpha>
      <index>
        1 0 22 21 20 19 18 17 16 15 14 13 11 12 2 3 4 5 6 7 8 9 10 34 35
        36 37 38 39 40 41 42 43 44 33 32 31 30 29 28 27 26 25 24 23</index></_></decision_functions></opencv_ml_svm>
</opencv_storage>
